{
  "layers": [{
    "opts": { "inodes": 6, "onodes": 9, "lr": 0.01 },
    "inodes": 6,
    "onodes": 9,
    "activationType": "sigmoid",
    "lr": 0.01,
    "weights": {
      "rows": 9,
      "cols": 6,
      "data": [
        [-0.4240118071347706, -1.4100187900901586, 1.1933536705350147, 0.7810758335982835, 0.07303762460195473, -
          0.6974146669164509
        ],
        [0.11601544761934102, -0.7122880873500737, -0.15681685709292292, -0.09436112541960737, -1.896155801044008,
          -0.35366141686175834
        ],
        [0.788971597315004, -0.9736848600348726, 2.2433469689103047, -1.7107293881358887, -2.5446812786834263,
          0.42769534486644883
        ],
        [-0.1513581067229153, -0.590302793473056, -0.5534083309594329, 0.603, -0.45602261851120984,
          0.2931093098737023
        ],
        [1.7685423853195859, 0.202715044609475, 0.9205643892672696, 0.1251920524822, 0.686, 1.5025802614043169],
        [1.1072702469369187, -1.29875945576648, -2.0065108960668923, 2.0218083877095934, -2.540809744672539,
          1.273618130806994
        ],
        [0.3809822333723328, -0.6306392755873864, 0.07158894433464785, -0.30220613312985434, 0.7780152142710487,
          1.5683811713240154
        ],
        [-2.7842388366822384, 0.4253662516240682, 1.0915561008982104, -1.1657767271783952, 0.83592541085904, -
          0.6828401540489524
        ],
        [-0.2697959203165008, -0.39413498425156485, -0.2993764270131478, 0.6744161293801127, -0.10721766147865108,
          -0.013237684246138914
        ]
      ]
    },
    "bias": {
      "rows": 9,
      "cols": 1,
      "data": [
        [0.574],
        [0.537],
        [-0.327],
        [0.083],
        [-0.417],
        [0.656],
        [-0.218],
        [-0.57],
        [-0.681]
      ]
    },
    "activation": { "type": "sigmoid", "useX": false },
    "input": {
      "rows": 6,
      "cols": 1,
      "data": [
        [0.5714285714287863],
        [0.2271036602375062],
        [0.6018591635788131],
        [0.5284906835867035],
        [0.24848465906904085],
        [1]
      ]
    },
    "output": {
      "rows": 9,
      "cols": 1,
      "data": [
        [0.6137832982835639],
        [0.3710893391508084],
        [0.5359799493572769],
        [0.5069621550554357],
        [0.949448403554042],
        [0.8171129587153174],
        [0.8178074761657634],
        [0.07595245320033928],
        [0.31252993549131486]
      ]
    }
  }, {
    "opts": { "onodes": 6, "lr": 0.01 },
    "onodes": 6,
    "activationType": "sigmoid",
    "lr": 0.01,
    "weights": {
      "rows": 6,
      "cols": 9,
      "data": [
        [-2.784253623933512, 0.7197842828928646, 0.49944512080017395, 0.9632753940076966, 0.6192749363776988,
          0.2826629893682475, -2.119488018787994, 1.4735743955582965, -0.7326658003011455
        ],
        [-0.8645066141563402, 0.47552580928730004, 1.3534591166218708, 0.050015312804604695, -0.4063092070982682,
          1.2437084754129912, 0.1764674977256623, -2.0449167212209707, -1.4651830405890292
        ],
        [0.47658565061504127, -0.2594715204566622, -1.4304352853789801, -0.165960234345609, -2.225355183552696,
          0.9694864581656659, 0.6412853263177851, -0.5605315623354625, -0.6215038614705154
        ],
        [0.2980651216477024, 0.42409364233742874, -0.8642415385150795, -0.5598251789351786, -1.213984267578553,
          0.667382932119283, -0.6727866288341141, 1.2568517751994404, 0.11798918135538639
        ],
        [0.4566853699705363, -0.2962313140656287, 0.49194490893103215, -1.2036658298764034, -1.3197124144029648,
          1.2209300041750937, -0.9268905102284324, 3.826645683444012, 1.6336307955981768
        ],
        [0.7592956527500276, 0.32551977650436537, 0.985, -1.9574091369264734, 1.085587613995004, -
          1.0292262172458604, 0.9281248429494704, 1.0036331707064088, 0.18218539442379883
        ]
      ]
    },
    "bias": {
      "rows": 6,
      "cols": 1,
      "data": [
        [0.535],
        [0.173],
        [0.006],
        [-0.011],
        [0.99],
        [0.27]
      ]
    },
    "activation": { "type": "sigmoid", "useX": false },
    "input": {
      "rows": 9,
      "cols": 1,
      "data": [
        [0.6137832982835639],
        [0.3710893391508084],
        [0.5359799493572769],
        [0.5069621550554357],
        [0.949448403554042],
        [0.8171129587153174],
        [0.8178074761657634],
        [0.07595245320033928],
        [0.31252993549131486]
      ]
    },
    "output": {
      "rows": 6,
      "cols": 1,
      "data": [
        [0.23464936850898946],
        [0.6750669647232932],
        [0.15687957270512293],
        [0.1911021897890263],
        [0.6460359282498935],
        [0.8137187828213814]
      ]
    }
  }, {
    "opts": { "onodes": 4 },
    "onodes": 4,
    "activationType": "sigmoid",
    "lr": 0.1,
    "weights": {
      "rows": 4,
      "cols": 6,
      "data": [
        [-1.184793633108499, 0.7202558621336207, -0.8234725543537214, -0.922099643797286, 3.146772659198094, -
          1.2862242751632105
        ],
        [0.6060802786335381, 1.3981837545699902, -2.337292315033323, -0.5492741041795806, -0.3501577108720476,
          0.7531103787130757
        ],
        [1.0269016638999235, 0.7370473866309446, 0.5806109992338453, 0.07410752307396326, 0.34278175882543116, -
          0.7037224630841757
        ],
        [0.44499206132707037, -2.447505342751958, -1.8077557109449356, 0.748, -0.6332484407783077,
          0.8552295553491998
        ]
      ]
    },
    "bias": {
      "rows": 4,
      "cols": 1,
      "data": [
        [-0.096],
        [0.226],
        [-0.505],
        [0.507]
      ]
    },
    "activation": { "type": "sigmoid", "useX": false },
    "input": {
      "rows": 6,
      "cols": 1,
      "data": [
        [0.23464936850898946],
        [0.6750669647232932],
        [0.15687957270512293],
        [0.1911021897890263],
        [0.6460359282498935],
        [0.8137187828213814]
      ]
    },
    "output": {
      "rows": 4,
      "cols": 1,
      "data": [
        [0.6884991295973426],
        [0.7733016126487748],
        [0.49689589741944473],
        [0.29015048521066117]
      ]
    }
  }]
}






{ "layers": [{ "opts": { "inodes": 6, "onodes": 9, "lr": 0.01 }, "inodes": 6, "onodes": 9, "activationType": "sigmoid", "lr": 0.01, "weights": { "rows": 9, "cols": 6, "data": [
        [-0.4914678432308625, -0.05337960543497511, 0.32667009569589156, -0.5169921236045721, -
          0.46960175878520366, 0.11589311847419936
        ],
        [-0.7866196293051347, -0.14115770372585373, 0.03541398321904504, -1.8723176933459305, 0.5885191645345018,
          -0.5834003083680134
        ],
        [-0.921156161196642, 0.30435194285889866, -0.17517690414995318, -2.4161663310824313, 0.8663634153070865,
          1.345818467264321
        ],
        [-0.6608960190546272, -0.765973846541348, 2.3886213910277103, 0.5784723939212366, 1.9146880847828518,
          1.1593017026766383
        ],
        [0.25843708441262503, 0.09596887201722255, 1.3568822676524814, -2.923891000224061, 0.29174304439944987, -
          0.30377923943372354
        ],
        [0.009659371206093018, 0.9258156123691041, -1.79540826234702, 0.6657291665534036, -0.16967035786706433,
          0.4018551900387105
        ],
        [3.051599186030261, 1.1084601388390962, -0.9027246775835591, -1.8827074680892162, -1.036127882665655, -
          1.1844698567196166
        ],
        [0.07743510768708778, 1.461611671069687, 0.056433679671817644, 0.057984262762476035, 1.019544050986723, -
          1.4470781527796799
        ],
        [0.5321377434327402, -0.4099429502607248, 0.027354688502304728, -2.7651266504792607, 0.3878097149145292,
          1.9048106670025948
        ]
      ] }, "bias": { "rows": 9, "cols": 1, "data": [
        [-0.722],
        [-0.712],
        [0.632],
        [-0.559],
        [0.591],
        [-0.931],
        [-0.357],
        [0.099],
        [0.727]
      ] }, "activation": { "type": "sigmoid", "useX": false }, "input": { "rows": 6, "cols": 1, "data": [
        [0.5750000000000405],
        [0.18451136385322073],
        [0.5509295817894064],
        [0.5625214499618412],
        [0.24156880283818058],
        [0.4210339452494276]
      ] }, "output": { "rows": 9, "cols": 1, "data": [
        [0.23327033022890367],
        [0.08886900860021339],
        [0.37256178944567847],
        [0.8193061264593295],
        [0.45082906210162216],
        [0.2242495591698372],
        [0.3311017493341147],
        [0.5284538585902532],
        [0.5775295734734875]
      ] } }, { "opts": { "onodes": 6, "lr": 0.01 }, "onodes": 6, "activationType": "sigmoid", "lr": 0.01, "weights": { "rows": 6, "cols": 9, "data": [
        [1.27757121003574, 2.448522786913634, -1.4878762433861683, 0.9506723851607275, -0.3125191499242206,
          0.636892119690058, -1.0670799235225217, -3.992942140390897, 0.3798277218568325
        ],
        [0.3873838107872065, 2.194864475283071, -1.646217312993119, -0.14999229887164545, -1.6461472907595416,
          4.296840000305727, 1.7112293905455174, -1.66523683051488, 3.5348726424853947
        ],
        [1.19385937434198, -1.2384793714819393, 0.24311180460219886, 0.25810484561441094, -0.13798581876826888,
          0.30101084151436514, -2.3822944704152063, 1.4043576987819675, -1.2041552981983226
        ],
        [0.4649254854717617, 0.424174293278409, -0.6131988722425661, -2.9427636736916556, 0.15076863246358818, -
          2.6052147702409214, 0.4492120888120632, -1.8964254883057348, -0.7728993968106777
        ],
        [0.7663909410207437, 0.3003281568907133, -3.687635393593119, -0.9602106952565633, 0.3821066627446846, -
          0.9118202917783697, 0.7810405252009809, 0.3559139340280455, -1.3501330424861466
        ],
        [-0.5095634305149325, 1.4433223236722121, 0.8598339258586543, 0.35235588897908376, 3.1784698231350363, -
          2.3258853346788704, -0.3401879186860945, 0.642785253307818, -1.2241800294560472
        ]
      ] }, "bias": { "rows": 6, "cols": 1, "data": [
        [-0.006],
        [-0.884],
        [-0.621],
        [0.772],
        [0.188],
        [0.72]
      ] }, "activation": { "type": "sigmoid", "useX": false }, "input": { "rows": 9, "cols": 1, "data": [
        [0.23327033022890367],
        [0.08886900860021339],
        [0.37256178944567847],
        [0.8193061264593295],
        [0.45082906210162216],
        [0.2242495591698372],
        [0.3311017493341147],
        [0.5284538585902532],
        [0.5775295734734875]
      ] }, "output": { "rows": 6, "cols": 1, "data": [
        [0.1812468407729786],
        [0.6490191237629044],
        [0.2916642692138813],
        [0.028266956700006562],
        [0.10598957393416694],
        [0.8544380670487771]
      ] } }, { "opts": { "onodes": 4 }, "onodes": 4, "activationType": "sigmoid", "lr": 0.1, "weights": { "rows": 4, "cols": 6, "data": [
        [2.923514451186335, -0.41089811918567043, -0.6658918365006388, -0.876932932789507, 1.153899014020341, -
          0.0769199830982282
        ],
        [0.9713988101951215, -1.2083730782437125, -1.112743239365369, -1.2023591212355371, -0.33984403449324496,
          1.452248329667086
        ],
        [-0.1368320394311358, 2.3759489423403943, -3.5910882952275727, 1.538118634455674, -0.09376574653395364, -
          1.6332336543204427
        ],
        [-0.602524262237335, -1.2038777105110696, 0.31398711958695225, 0.04938466132884617, -0.5011469904790768,
          0.6091053465063022
        ]
      ] }, "bias": { "rows": 4, "cols": 1, "data": [
        [0.476],
        [-0.324],
        [0.84],
        [0.225]
      ] }, "activation": { "type": "sigmoid", "useX": false }, "input": { "rows": 6, "cols": 1, "data": [
        [0.1812468407729786],
        [0.6490191237629044],
        [0.2916642692138813],
        [0.028266956700006562],
        [0.10598957393416694],
        [0.8544380670487771]
      ] }, "output": { "rows": 4, "cols": 1, "data": [
        [0.6403238090716709],
        [0.47854008760719763],
        [0.48697457704525965],
        [0.4737132441175516]
      ] } }] }