const trainedData = [
  [{"weights":{"rows":9,"cols":6,"data":[[5.005771217676998,2.5773340457225333,1.2200308515232985,-0.42611917862362775,1.2815353973936099,1.1195614526248854],[2.993099509398239,0.49213913092341166,-1.5494621038700611,-1.9150247454522584,-5.227826467165486,0.9926715144370278],[1.9728538007733631,-1.2460097942792288,1.3646060776327786,0.0031575460861690274,1.925681141983367,1.433885027474084],[0.6972184125287683,-1.2477085273077577,-5.9585995199798685,-2.1312517259973833,-2.850523157144387,1.0516311577427464],[1.1036827089945116,-3.7520818866618733,0.466981332806799,-3.2207311332604003,-0.4274023140859198,4.377685769984181],[-6.289633385991689,2.2029983527557526,-0.6904992664864462,2.5708822209423787,2.3049247409808205,0.11458143794903697],[0.44982254000030486,1.7314528628549435,1.5903977553127588,-0.2856623947140349,1.253934986305527,-1.9091476316198208],[1.3105467328263771,-0.6458396615887283,-4.3171071449432326,0.5201912391864995,-0.5924591394140457,3.3555155646976664],[3.9639975874845126,0.8005010997880168,0.20445290716189396,0.9388012317398506,-0.6665256033697077,1.703355799231849]]},"bias":{"rows":9,"cols":1,"data":[[0.101],[0.667],[-0.862],[-0.069],[-0.793],[0.148],[-0.766],[0.475],[0.68]]}},{"weights":{"rows":6,"cols":9,"data":[[0.7807275268237135,1.0552617295381226,-1.3679776545793123,-0.4189647439543866,0.22884085628383274,1.37318513278189,-2.0339665841125867,-0.010896334664150867,-3.3468353690790535],[0.4414399697363267,-1.229487192474182,0.7161155084860207,-5.1433503398091185,-2.057434925036543,-1.0825721493343508,0.3027606836840256,-2.4073447245589343,-1.5381898327274905],[-2.012910495466292,3.2837029672539253,-1.604824872637902,-0.5219981439880478,-0.9015794817749853,0.6412154809395488,-0.19778655762798586,1.6565539985651416,-0.2070495544029866],[0.5525360233486869,-0.5093383292522293,-1.6549734454425826,0.0724773870099632,-0.7998747784500472,-1.843871986317709,2.6975911264903325,-0.9318031826206719,0.7181331253525173],[-1.9700013551170354,2.3403514766008726,-1.2909503851625153,-0.9452195255248248,-1.9622100681765042,-3.0423451892074618,2.516827165998575,-2.2688387752111185,-0.12959393600059935],[0.27362440383655373,1.728034791868121,-5.136471713494403,-0.030737219355507328,1.2800014734826144,-0.1608330423946075,1.248329430122446,1.6353411773599802,0.17061819708931547]]},"bias":{"rows":6,"cols":1,"data":[[-0.877],[-0.608],[-0.743],[0.086],[-0.3],[-0.59]]}},{"weights":{"rows":4,"cols":6,"data":[[1.04803114599185,-2.472251105056713,1.6217731802346327,1.7232733128951456,-0.9967870049546591,0.4901020932663443],[-0.6198008784685803,-2.951300432864133,0.6553985973259675,0.6687903533683702,-1.7295048447472279,0.5295491464896529],[-0.9163247859167379,3.293141832645257,1.7574795357853135,-1.3650578425976827,-0.8126512223263587,0.2800790143490828],[-0.09756203923251491,-1.0343679735880613,-1.8533764859778703,0.6746351622932285,-0.4546680253128794,-1.484200584731226]]},"bias":{"rows":4,"cols":1,"data":[[0.331],[0.429],[0.387],[0.211]]}}],
  [{"weights":{"rows":9,"cols":6,"data":[[4.639114799027637,2.510525366467072,1.824942191935646,-0.4113382048144799,1.7355280999367846,1.1195614526248854],[2.993099509398239,0.5694284890074401,-0.9703154460167812,-1.9225129996308856,-4.948626066829108,-0.16093900226511654],[2.2928093737843476,-1.0289586019605426,0.9004264492704592,0.0031575460861690274,1.2246819200293015,1.433885027474084],[0.7460411300096654,-1.2477085273077577,-5.9585995199798685,-2.1312517259973833,-2.6983194793892347,1.0516311577427464],[1.1036827089945116,-3.7520818866618733,0.466981332806799,-2.350813942574926,-0.4274023140859198,4.025369073489074],[-6.289633385991689,2.556939823177813,-0.6904992664864462,2.079666874355251,2.3049247409808205,0.4189395135712307],[0.46402989426875635,1.5815605135111894,1.707796135626125,-0.2856623947140349,1.253934986305527,-1.9091476316198208],[1.3105467328263771,-0.021829914459130406,-3.6788012402448413,1.3096560265437533,-0.5924591394140457,3.3555155646976664],[4.065874516468892,-0.4057885814303514,0.20445290716189396,0.8887917817298383,-0.6665256033697077,1.7519972368397214]]},"bias":{"rows":9,"cols":1,"data":[[0.101],[0.667],[-0.862],[-0.069],[-0.793],[0.148],[-0.766],[0.475],[0.68]]}},{"weights":{"rows":6,"cols":9,"data":[[1.1548855545841727,1.0552617295381226,-1.3679776545793123,-0.47228111722959204,1.8972251452045936,1.1337068633493574,-1.9789152568133013,-0.1324776177549053,-3.3468353690790535],[0.4414399697363267,-1.229487192474182,0.7161155084860207,-5.1433503398091185,-2.057434925036543,-1.0825721493343508,-0.18876136287414758,-2.5164222298843812,-1.5381898327274905],[-2.012910495466292,1.8727605502221483,-2.1299632604481973,-0.7491103143325123,-1.293388086384728,0.5577264917350204,-0.42494175490479286,1.6565539985651416,-0.6831814687964065],[0.5525360233486869,-0.690284057578176,-1.6663025552452877,-0.8083579634621416,-1.370722958029698,-1.843871986317709,2.6975911264903325,-0.9318031826206719,0.7181331253525173],[-1.7938940610171588,2.3504419452713377,-1.2909503851625153,-0.9452195255248248,-2.138800273260384,-3.0423451892074618,2.740001388550268,-2.2688387752111185,-0.12959393600059935],[-0.4066325510629284,1.213606213630999,-4.668414685297569,-0.030737219355507328,1.2800014734826144,0.5529209330524487,1.248329430122446,2.174932617831616,0.25140181771582737]]},"bias":{"rows":6,"cols":1,"data":[[-0.877],[-0.608],[-0.743],[0.086],[-0.3],[-0.59]]}},{"weights":{"rows":4,"cols":6,"data":[[1.04803114599185,-2.509993312519655,1.6217731802346327,1.7232733128951456,-0.9967870049546591,0.4901020932663443],[-0.6198008784685803,-2.121458452685847,0.5928095567203668,0.4680228688867709,-1.3064009341182903,-0.020189858923503556],[-0.7375931738454251,3.293141832645257,0.9978839012256621,-1.3650578425976827,-0.7101915788515217,0.2800790143490828],[-0.09756203923251491,-0.2486114883855628,-1.8533764859778703,1.1321350113766095,-0.2633376765897355,-1.484200584731226]]},"bias":{"rows":4,"cols":1,"data":[[0.331],[0.429],[0.387],[0.211]]}}],
  [{"weights":{"rows":9,"cols":6,"data":[[4.1197783108513395,3.4080131110985197,1.889883377432209,-0.34276820104971006,0.5408487474601804,1.3924279371744577],[1.7981103483722876,0.24046685085941205,-0.9703154460167812,-1.4710903709480652,-5.227826467165486,-0.16093900226511654],[2.741832751684336,-0.4347278827910924,0.9004264492704592,0.0031575460861690274,1.5947850441610063,1.433885027474084],[1.1369482677061244,-1.3799281708488722,-5.614604002434327,-1.6626449658310662,-3.0075389072536964,1.0516311577427464],[1.1036827089945116,-3.7520818866618733,0.631366980305359,-3.182793058355654,-0.5793259225825689,3.6206060797373585],[-5.843734763837822,2.556939823177813,-0.6904992664864462,2.5708822209423787,2.3049247409808205,-0.2794862074355866],[0.4011453871827851,1.5815605135111894,1.205007133887459,-0.2856623947140349,1.253934986305527,-1.9091476316198208],[0.5749059394112572,-0.49824802591055195,-3.6788012402448413,1.3096560265437533,-0.7689106259998546,3.6810312730919024],[3.506568795478288,-0.4057885814303514,0.20445290716189396,1.400572006645163,-1.296815457255693,1.703355799231849]]},"bias":{"rows":9,"cols":1,"data":[[0.101],[0.667],[-0.862],[-0.069],[-0.793],[0.148],[-0.766],[0.475],[0.68]]}},{"weights":{"rows":6,"cols":9,"data":[[1.5829662438585623,1.648391577720179,-1.3679776545793123,0.05853536570878792,1.8972251452045936,1.37318513278189,-1.9789152568133013,-0.1324776177549053,-2.449808593137558],[0.4414399697363267,-1.3356914504642945,0.7161155084860207,-5.1433503398091185,-2.057434925036543,-1.0825721493343508,-0.18876136287414758,-2.18783199813882,-1.5381898327274905],[-1.9689211351414864,1.8727605502221483,-0.5135714886656207,-0.1419259919605184,-1.293388086384728,0.5577264917350204,-0.42494175490479286,1.161159124206621,-0.2070495544029866],[0.5525360233486869,-0.5093383292522293,-1.6663025552452877,0.6555285864522031,-2.371262023452853,-1.843871986317709,2.6975911264903325,-0.9318031826206719,0.7181331253525173],[-1.9700013551170354,1.7048037289264333,-0.7119624911706033,-0.8851589178914973,-2.1901059317829343,-3.0423451892074618,3.3412524331983438,-2.145583727253083,-0.22593945054432152],[-0.5388361633155603,1.213606213630999,-4.668414685297569,-0.7256466397361729,1.2800014734826144,0.5529209330524487,0.9400517224543522,2.174932617831616,0.0399555530954665]]},"bias":{"rows":6,"cols":1,"data":[[-0.877],[-0.608],[-0.743],[0.086],[-0.3],[-0.59]]}},{"weights":{"rows":4,"cols":6,"data":[[1.7498272959457792,-2.509993312519655,0.11457141686199651,1.7232733128951456,-0.9967870049546591,0.4901020932663443],[-0.013470610384445133,-2.071913895411123,0.6381030352350006,0.6687903533683702,-1.3064009341182903,1.372166265706108],[-0.9163247859167379,3.5409391401671404,0.3182374135455419,-1.3650578425976827,-0.7101915788515217,0.407341376379345],[-0.09756203923251491,-1.3888845678614443,-1.8533764859778703,0.7510329678436218,-0.056294543656742246,-1.357110488615899]]},"bias":{"rows":4,"cols":1,"data":[[0.331],[0.429],[0.387],[0.211]]}}],
  [{"weights":{"rows":9,"cols":6,"data":[[4.1197783108513395,3.4080131110985197,2.0726612021673216,0.12429160189208904,0.20738533507003212,1.492424498303232],[1.7981103483722876,0.24046685085941205,-0.9703154460167812,-2.7029012024843118,-6.041756020176894,-0.16093900226511654],[2.741832751684336,-0.4347278827910924,0.9004264492704592,0.0031575460861690274,1.2937534582027717,0.8063741312505952],[1.1369482677061244,-0.8155993181539407,-5.614604002434327,-1.6626449658310662,-3.0075389072536964,0.7405906972412043],[1.749739707356364,-3.7520818866618733,0.28297137342432915,-3.182793058355654,-0.5793259225825689,3.6206060797373585],[-5.843734763837822,3.0837192628327323,-0.6904992664864462,2.5708822209423787,2.3049247409808205,-0.2794862074355866],[0.4011453871827851,1.5815605135111894,1.205007133887459,-0.2856623947140349,1.8533263070428498,-1.599948546431318],[0.5749059394112572,-0.49824802591055195,-3.3640076622993487,1.3096560265437533,-0.7689106259998546,3.6810312730919024],[3.506568795478288,-0.07664031317675501,-0.08038184978265317,1.400572006645163,-1.296815457255693,1.7089155867667674]]},"bias":{"rows":9,"cols":1,"data":[[0.101],[0.667],[-0.862],[-0.069],[-0.793],[0.148],[-0.766],[0.475],[0.68]]}},{"weights":{"rows":6,"cols":9,"data":[[1.5829662438585623,2.116818617149064,-1.3679776545793123,0.05853536570878792,1.8972251452045936,1.3422770171758813,-1.9789152568133013,-0.1324776177549053,-2.449808593137558],[0.4414399697363267,-1.3356914504642945,0.7161155084860207,-5.1433503398091185,-2.057434925036543,-1.0825721493343508,-0.18876136287414758,-2.18783199813882,-1.5381898327274905],[-1.9689211351414864,1.8727605502221483,-0.5135714886656207,-0.1419259919605184,-1.293388086384728,0.5577264917350204,-0.42494175490479286,1.4484045866683988,-0.2070495544029866],[0.5525360233486869,-0.5093383292522293,-1.6663025552452877,1.6768113161153266,-2.6059617516015043,-1.843871986317709,2.191896998196642,-0.9318031826206719,0.7181331253525173],[-2.026617065110838,1.8607017630306928,-0.7119624911706033,-0.8851589178914973,-2.1901059317829343,-3.0423451892074618,3.3412524331983438,-2.145583727253083,-0.22593945054432152],[-0.5388361633155603,1.213606213630999,-5.052582548340082,-0.8204669525590168,1.2800014734826144,0.5529209330524487,0.9400517224543522,2.174932617831616,0.0399555530954665]]},"bias":{"rows":6,"cols":1,"data":[[-0.877],[-0.608],[-0.743],[0.086],[-0.3],[-0.59]]}},{"weights":{"rows":4,"cols":6,"data":[[1.6510245961655388,-2.509993312519655,0.11457141686199651,1.2371453903487195,-1.2529223710062412,0.0528603682605045],[-0.013470610384445133,-1.4057277160747854,0.6381030352350006,-0.04746504620752312,-1.0329083334786797,1.372166265706108],[-0.9163247859167379,3.617758917564634,0.3182374135455419,-1.3650578425976827,-1.6605307199473174,0.407341376379345],[-0.09756203923251491,-0.8503636990413116,-1.8533764859778703,0.7510329678436218,-0.056294543656742246,-1.357110488615899]]},"bias":{"rows":4,"cols":1,"data":[[0.331],[0.429],[0.387],[0.211]]}}],
  [{"weights":{"rows":9,"cols":6,"data":[[4.1197783108513395,3.4080131110985197,1.889883377432209,0.12429160189208904,0.20738533507003212,1.492424498303232],[1.7981103483722876,0.24046685085941205,-0.9703154460167812,-2.7029012024843118,-5.227826467165486,-0.16093900226511654],[2.741832751684336,-0.4347278827910924,0.9004264492704592,0.0031575460861690274,1.2937534582027717,0.8063741312505952],[1.1369482677061244,-0.8155993181539407,-5.614604002434327,-1.6626449658310662,-3.0075389072536964,0.7405906972412043],[0.6233698714493275,-3.7520818866618733,0.28297137342432915,-3.182793058355654,-0.5793259225825689,3.6206060797373585],[-5.843734763837822,3.0837192628327323,-0.6904992664864462,2.5708822209423787,2.3049247409808205,-0.2794862074355866],[0.4011453871827851,1.5815605135111894,1.205007133887459,-0.2856623947140349,1.8533263070428498,-1.599948546431318],[0.5749059394112572,-0.49824802591055195,-3.3640076622993487,1.3096560265437533,-0.7689106259998546,3.6810312730919024],[3.506568795478288,-0.07664031317675501,-0.08038184978265317,1.400572006645163,-1.296815457255693,1.703355799231849]]},"bias":{"rows":9,"cols":1,"data":[[0.101],[0.667],[-0.862],[-0.069],[-0.793],[0.148],[-0.766],[0.475],[0.68]]}},{"weights":{"rows":6,"cols":9,"data":[[1.5829662438585623,2.116818617149064,-1.3679776545793123,0.05853536570878792,1.8972251452045936,1.3422770171758813,-1.9789152568133013,-0.1324776177549053,-2.449808593137558],[0.4414399697363267,-1.3356914504642945,0.7161155084860207,-5.1433503398091185,-2.057434925036543,-1.0825721493343508,-0.18876136287414758,-2.18783199813882,-1.5381898327274905],[-1.9689211351414864,1.8727605502221483,-0.5135714886656207,-0.1419259919605184,-1.293388086384728,0.5577264917350204,-0.42494175490479286,1.4484045866683988,-0.2070495544029866],[0.5525360233486869,-0.5093383292522293,-1.6663025552452877,1.6768113161153266,-2.6059617516015043,-1.843871986317709,2.191896998196642,-0.9318031826206719,0.7181331253525173],[-1.9700013551170354,1.8607017630306928,-0.7119624911706033,-0.8851589178914973,-2.1901059317829343,-3.0423451892074618,3.3412524331983438,-2.145583727253083,-0.22593945054432152],[-0.5388361633155603,1.213606213630999,-5.052582548340082,-0.8204669525590168,1.2800014734826144,0.5529209330524487,0.9400517224543522,2.174932617831616,0.0399555530954665]]},"bias":{"rows":6,"cols":1,"data":[[-0.877],[-0.608],[-0.743],[0.086],[-0.3],[-0.59]]}},{"weights":{"rows":4,"cols":6,"data":[[1.6510245961655388,-2.509993312519655,0.11457141686199651,1.6712033808534419,-0.9967870049546591,-0.3282097428322181],[-0.013470610384445133,-2.071913895411123,0.6381030352350006,-0.04746504620752312,-1.0329083334786797,1.372166265706108],[-0.9163247859167379,3.626004468686159,0.3182374135455419,-1.3650578425976827,-1.6605307199473174,0.407341376379345],[-0.09756203923251491,-0.8503636990413116,-1.8533764859778703,0.7510329678436218,-0.056294543656742246,-1.357110488615899]]},"bias":{"rows":4,"cols":1,"data":[[0.331],[0.429],[0.387],[0.211]]}}],
  [{"weights":{"rows":9,"cols":6,"data":[[4.1197783108513395,3.4080131110985197,2.0726612021673216,-0.5515936223089348,0.20738533507003212,2.154139645013508],[2.681366292837036,0.24046685085941205,-1.5236829106438794,-2.7029012024843118,-5.952712198204672,-0.16093900226511654],[2.741832751684336,-0.4347278827910924,0.9004264492704592,0.0031575460861690274,0.7438776420426917,0.8063741312505952],[1.1369482677061244,-1.1476417942879331,-6.459530547448096,-1.6626449658310662,-2.3504636889905237,0.5486944696989318],[2.2015855267885573,-3.7520818866618733,0.28297137342432915,-3.182793058355654,-0.5793259225825689,3.6206060797373585],[-5.843734763837822,3.3205347380374253,-0.6511216680443529,2.5708822209423787,2.3049247409808205,-0.2794862074355866],[0.4011453871827851,1.5815605135111894,1.205007133887459,-0.2856623947140349,1.8533263070428498,-1.599948546431318],[0.5749059394112572,-0.49824802591055195,-3.3640076622993487,1.3722840286463842,-1.9047454347249193,3.6810312730919024],[2.947304059741846,-0.07664031317675501,-0.3118892838736927,1.400572006645163,-1.296815457255693,0.9128832504007293]]},"bias":{"rows":9,"cols":1,"data":[[0.101],[0.667],[-0.862],[-0.069],[-0.793],[0.148],[-0.766],[0.475],[0.68]]}},{"weights":{"rows":6,"cols":9,"data":[[1.5829662438585623,2.116818617149064,-1.3679776545793123,-0.34919716518198946,2.4561187638546507,1.3422770171758813,-1.9789152568133013,-0.1324776177549053,-2.449808593137558],[0.4414399697363267,-1.3356914504642945,0.7161155084860207,-5.1433503398091185,-2.057434925036543,-1.0825721493343508,-0.18876136287414758,-2.8171985785590485,-1.5381898327274905],[-1.9689211351414864,1.8727605502221483,-0.5135714886656207,0.6523316513049072,-1.2784394108076107,0.7487358141361297,-0.42494175490479286,1.4484045866683988,-0.2070495544029866],[0.5525360233486869,-0.5093383292522293,-1.6663025552452877,1.6768113161153266,-2.6059617516015043,-1.843871986317709,2.191896998196642,-0.9318031826206719,0.7181331253525173],[-2.026617065110838,1.8607017630306928,-0.5088533658558361,-0.9308134481534329,-2.1971313492289033,-3.0423451892074618,3.3412524331983438,-2.145583727253083,-0.47829715065420386],[-0.5388361633155603,1.213606213630999,-5.052582548340082,-1.3333446230822106,1.2800014734826144,0.5529209330524487,1.1059420506522413,2.0609437879107095,0.0399555530954665]]},"bias":{"rows":6,"cols":1,"data":[[-0.877],[-0.608],[-0.743],[0.086],[-0.3],[-0.59]]}},{"weights":{"rows":4,"cols":6,"data":[[1.6510245961655388,-2.509993312519655,1.0092594327982158,1.0997656230650787,-1.2529223710062412,0.0528603682605045],[-0.013470610384445133,-1.4057277160747854,0.6381030352350006,-0.04746504620752312,-1.1791654415101416,1.745467650250442],[-1.0505342435083675,3.3166498931798523,0.3182374135455419,-1.3650578425976827,-1.3635192611865965,0.407341376379345],[-0.09756203923251491,-0.8503636990413116,-1.4098458835477008,0.7510329678436218,-0.056294543656742246,-1.357110488615899]]},"bias":{"rows":4,"cols":1,"data":[[0.331],[0.429],[0.387],[0.211]]}}]
]